solver_type L2R_LR_DUAL
nr_class 2
label 1 -1
nr_feature 270
nr_feat_orig 13
kernel_type rbf
gamma 0.076923076923076927
bias 1
SV
0.17607593556339021 y:1 1:0.708333 2:1 3:1 4:-0.320755 5:-0.105023 6:-1 7:1 8:-0.419847 9:-1 10:-0.225806 12:1 13:-1 14:1 
0.46187831413121277 y:-1 1:0.583333 2:-1 3:0.333333 4:-0.603774 5:1 6:-1 7:1 8:0.358779 9:-1 10:-0.483871 12:-1 13:1 14:1 
0.68888151376116757 y:1 1:0.166667 2:1 3:-0.333333 4:-0.433962 5:-0.383562 6:-1 7:-1 8:0.0687023 9:-1 10:-0.903226 11:-1 12:-1 13:1 14:1 
0.84221068790282527 y:-1 1:0.458333 2:1 3:1 4:-0.358491 5:-0.374429 6:-1 7:-1 8:-0.480916 9:1 10:-0.935484 12:-0.333333 13:1 14:1 
0.28988212265242375 y:-1 1:0.875 2:-1 3:-0.333333 4:-0.509434 5:-0.347032 6:-1 7:1 8:-0.236641 9:1 10:-0.935484 11:-1 12:-0.333333 13:-1 14:1 
0.46549035472640277 y:-1 1:0.5 2:1 3:1 4:-0.509434 5:-0.767123 6:-1 7:-1 8:0.0534351 9:-1 10:-0.870968 11:-1 12:-1 13:1 14:1 
0.23564681433093809 y:1 1:0.125 2:1 3:0.333333 4:-0.320755 5:-0.406393 6:1 7:1 8:0.0839695 9:1 10:-0.806452 12:-0.333333 13:0.5 14:1 
0.10452569522448221 y:1 1:0.25 2:1 3:1 4:-0.698113 5:-0.484018 6:-1 7:1 8:0.0839695 9:1 10:-0.612903 12:-0.333333 13:1 14:1 
0.12439613036164676 y:1 1:0.291667 2:1 3:1 4:-0.132075 5:-0.237443 6:-1 7:1 8:0.51145 9:-1 10:-0.612903 12:0.333333 13:1 14:1 
0.1588351442404852 y:1 1:0.416667 2:-1 3:1 4:0.0566038 5:0.283105 6:-1 7:1 8:0.267176 9:-1 10:0.290323 12:1 13:1 14:1 
0.55355627345618363 y:-1 1:0.25 2:1 3:1 4:-0.226415 5:-0.506849 6:-1 7:-1 8:0.374046 9:-1 10:-0.83871 12:-1 13:1 14:1 
0.78028356693006451 y:-1 2:1 3:1 4:-0.0943396 5:-0.543379 6:-1 7:1 8:-0.389313 9:1 10:-1 11:-1 12:-1 13:1 14:1 
0.1852412850160387 y:-1 1:-0.375 2:1 3:0.333333 4:-0.132075 5:-0.502283 6:-1 7:1 8:0.664122 9:-1 10:-1 11:-1 12:-1 13:-1 14:1 
0.63655521688656669 y:1 1:0.333333 2:1 3:-1 4:-0.245283 5:-0.506849 6:-1 7:-1 8:0.129771 9:-1 10:-0.16129 12:0.333333 13:-1 14:1 
0.22209995633168167 y:-1 1:0.166667 2:-1 3:1 4:-0.358491 5:-0.191781 6:-1 7:1 8:0.343511 9:-1 10:-1 11:-1 12:-0.333333 13:-1 14:1 
0.18423064028059502 y:-1 1:0.75 2:-1 3:1 4:-0.660377 5:-0.894977 6:-1 7:-1 8:-0.175573 9:-1 10:-0.483871 12:-1 13:-1 14:1 
0.097406050843462197 y:1 1:-0.291667 2:1 3:1 4:-0.132075 5:-0.155251 6:-1 7:-1 8:-0.251908 9:1 10:-0.419355 12:0.333333 13:1 14:1 
0.17325444756533806 y:1 2:1 3:1 4:-0.132075 5:-0.648402 6:1 7:1 8:0.282443 9:1 11:1 12:-1 13:1 14:1 
0.32185496497186239 y:-1 1:0.458333 2:1 3:-1 4:-0.698113 5:-0.611872 6:-1 7:1 8:0.114504 9:1 10:-0.419355 12:-1 13:-1 14:1 
0.38336387305436448 y:-1 1:-0.541667 2:1 3:-1 4:-0.132075 5:-0.666667 6:-1 7:-1 8:0.633588 9:1 10:-0.548387 11:-1 12:-1 13:1 14:1 
0.058064512187389491 y:1 1:0.583333 2:1 3:1 4:-0.509434 5:-0.52968 6:-1 7:1 8:-0.114504 9:1 10:-0.16129 12:0.333333 13:1 14:1 
0.17704757730454657 y:-1 1:-0.208333 2:1 3:-0.333333 4:-0.320755 5:-0.456621 6:-1 7:1 8:0.664122 9:-1 10:-0.935484 12:-1 13:-1 14:1 
0.23384562680991655 y:-1 1:-0.416667 2:1 3:1 4:-0.603774 5:-0.191781 6:-1 7:-1 8:0.679389 9:-1 10:-0.612903 12:-1 13:-1 14:1 
0.18716587318365752 y:-1 1:-0.25 2:1 3:1 4:-0.660377 5:-0.643836 6:-1 7:-1 8:0.0992366 9:-1 10:-0.967742 11:-1 12:-1 13:-1 14:1 
0.27386934731332602 y:-1 1:0.0416667 2:-1 3:-0.333333 4:-0.283019 5:-0.260274 6:1 7:1 8:0.343511 9:1 10:-1 11:-1 12:-0.333333 13:-1 14:1 
0.072744045702505006 y:-1 1:-0.208333 2:-1 3:0.333333 4:-0.320755 5:-0.319635 6:-1 7:-1 8:0.0381679 9:-1 10:-0.935484 11:-1 12:-1 13:-1 14:1 
0.34117586291470653 y:-1 1:-0.291667 2:-1 3:1 4:-0.169811 5:-0.465753 6:-1 7:1 8:0.236641 9:1 10:-1 12:-1 13:-1 14:1 
0.10304631350467909 y:-1 1:-0.0833333 2:-1 3:0.333333 4:-0.509434 5:-0.228311 6:-1 7:1 8:0.312977 9:-1 10:-0.806452 11:-1 12:-1 13:-1 14:1 
0.24916833458380014 y:1 1:0.208333 2:1 3:0.333333 4:-0.660377 5:-0.525114 6:-1 7:1 8:0.435115 9:-1 10:-0.193548 12:-0.333333 13:1 14:1 
0.217989936398648 y:-1 1:0.75 2:-1 3:0.333333 4:-0.698113 5:-0.365297 6:1 7:1 8:-0.0992366 9:-1 10:-1 11:-1 12:-0.333333 13:-1 14:1 
0.26482986437973238 y:1 1:0.166667 2:1 3:0.333333 4:-0.358491 5:-0.52968 6:-1 7:1 8:0.206107 9:-1 10:-0.870968 12:-0.333333 13:1 14:1 
0.63814165425297431 y:-1 1:0.541667 2:1 3:1 4:0.245283 5:-0.534247 6:-1 7:1 8:0.0229008 9:-1 10:-0.258065 11:-1 12:-1 13:0.5 14:1 
0.060004920350476415 y:-1 1:-0.666667 2:-1 3:0.333333 4:-0.509434 5:-0.593607 6:-1 7:-1 8:0.51145 9:-1 10:-1 11:-1 12:-1 13:-1 14:1 
0.11153967964204584 y:1 1:0.25 2:1 3:1 4:0.433962 5:-0.086758 6:-1 7:1 8:0.0534351 9:1 10:0.0967742 11:1 12:-1 13:1 14:1 
0.15510330697795965 y:1 1:-0.125 2:1 3:1 4:-0.0566038 5:-0.6621 6:-1 7:1 8:-0.160305 9:1 10:-0.709677 12:-1 13:1 14:1 
0.16810180384774065 y:1 1:-0.208333 2:1 3:1 4:-0.320755 5:-0.406393 6:1 7:1 8:0.206107 9:1 10:-1 11:-1 12:0.333333 13:1 14:1 
0.12569652134092019 y:1 1:0.333333 2:1 3:1 4:-0.132075 5:-0.630137 6:-1 7:1 8:0.0229008 9:1 10:-0.387097 11:-1 12:-0.333333 13:1 14:1 
0.80107590661953187 y:1 1:0.25 2:1 3:-1 4:0.245283 5:-0.328767 6:-1 7:1 8:-0.175573 9:-1 10:-1 11:-1 12:-1 13:-1 14:1 
0.12984519759912186 y:-1 1:-0.458333 2:1 3:0.333333 4:-0.320755 5:-0.753425 6:-1 7:-1 8:0.206107 9:-1 10:-1 11:-1 12:-1 13:-1 14:1 
0.24182824606671929 y:-1 1:-0.208333 2:1 3:1 4:-0.471698 5:-0.561644 6:-1 7:1 8:0.755725 9:-1 10:-1 11:-1 12:-1 13:-1 14:1 
0.57924692370771624 y:1 1:-0.541667 2:1 3:1 4:0.0943396 5:-0.557078 6:-1 7:-1 8:0.679389 9:-1 10:-1 11:-1 12:-1 13:1 14:1 
0.096282851824435356 y:-1 1:0.375 2:-1 3:1 4:-0.433962 5:-0.621005 6:-1 7:-1 8:0.40458 9:-1 10:-1 11:-1 12:-1 13:-1 14:1 
0.23056526706683167 y:-1 1:-0.375 2:1 3:0.333333 4:-0.320755 5:-0.511416 6:-1 7:-1 8:0.648855 9:1 10:-0.870968 11:-1 12:-1 13:-1 14:1 
0.21500942959387301 y:-1 1:-0.291667 2:1 3:-0.333333 4:-0.867925 5:-0.675799 6:1 7:-1 8:0.29771 9:-1 10:-1 11:-1 12:-1 13:1 14:1 
0.52586943733201885 y:1 1:0.25 2:1 3:0.333333 4:-0.396226 5:-0.579909 6:1 7:-1 8:-0.0381679 9:-1 10:-0.290323 12:-0.333333 13:0.5 14:1 
0.18951855794571559 y:-1 1:0.208333 2:1 3:0.333333 4:-0.132075 5:-0.611872 6:1 7:1 8:0.435115 9:-1 10:-1 11:-1 12:-1 13:-1 14:1 
0.37699675169772812 y:1 1:-0.166667 2:1 3:0.333333 4:-0.54717 5:-0.894977 6:-1 7:1 8:-0.160305 9:-1 10:-0.741935 11:-1 12:1 13:-1 14:1 
0.64674800176544556 y:1 1:-0.375 2:1 3:1 4:-0.698113 5:-0.675799 6:-1 7:1 8:0.618321 9:-1 10:-1 11:-1 12:-0.333333 13:-1 14:1 
0.20232404633395609 y:1 1:0.541667 2:1 3:-0.333333 4:0.245283 5:-0.452055 6:-1 7:-1 8:-0.251908 9:1 10:-1 12:1 13:0.5 14:1 
0.16716585367669029 y:1 1:0.5 2:-1 3:1 4:0.0566038 5:-0.547945 6:-1 7:1 8:-0.343511 9:-1 10:-0.677419 12:1 13:1 14:1 
0.24731891840534564 y:1 1:-0.458333 2:1 3:1 4:-0.207547 5:-0.136986 6:-1 7:-1 8:-0.175573 9:1 10:-0.419355 12:-1 13:0.5 14:1 
0.09253065656237966 y:-1 1:-0.0416667 2:1 3:-0.333333 4:-0.358491 5:-0.639269 6:1 7:-1 8:0.725191 9:-1 10:-1 11:-1 12:-1 13:-1 14:1 
0.23303688888137938 y:-1 1:0.5 2:-1 3:0.333333 4:-0.132075 5:0.328767 6:1 7:1 8:0.312977 9:-1 10:-0.741935 11:-1 12:-0.333333 13:-1 14:1 
0.12644095931453714 y:-1 1:0.416667 2:-1 3:-0.333333 4:-0.132075 5:-0.684932 6:-1 7:-1 8:0.648855 9:-1 10:-1 11:-1 12:0.333333 13:-1 14:1 
0.090249989980450182 y:-1 1:-0.333333 2:-1 3:-0.333333 4:-0.320755 5:-0.506849 6:-1 7:1 8:0.587786 9:-1 10:-0.806452 12:-1 13:-1 14:1 
0.068379363458246537 y:-1 1:-0.5 2:-1 3:-0.333333 4:-0.792453 5:-0.671233 6:-1 7:-1 8:0.480916 9:-1 10:-1 11:-1 12:-0.333333 13:-1 14:1 
0.22001026712997168 y:1 1:0.333333 2:1 3:1 4:-0.169811 5:-0.817352 6:-1 7:1 8:-0.175573 9:1 10:0.16129 12:-0.333333 13:-1 14:1 
0.12345761404403899 y:-1 1:0.291667 2:-1 3:0.333333 4:-0.509434 5:-0.762557 6:1 7:-1 8:-0.618321 9:-1 10:-1 11:-1 12:-1 13:-1 14:1 
0.61428406612188802 y:1 1:0.25 2:-1 3:1 4:0.509434 5:-0.438356 6:-1 7:-1 8:0.0992366 9:1 10:-1 12:-1 13:-1 14:1 
0.28693789730193919 y:1 1:0.375 2:1 3:-0.333333 4:-0.509434 5:-0.292237 6:-1 7:1 8:-0.51145 9:-1 10:-0.548387 12:-0.333333 13:1 14:1 
0.34919254203354416 y:-1 1:0.166667 2:1 3:0.333333 4:0.0566038 5:-1 6:1 7:-1 8:0.557252 9:-1 10:-0.935484 11:-1 12:-0.333333 13:1 14:1 
0.32641467660843793 y:1 1:-0.0833333 2:-1 3:1 4:-0.320755 5:-0.182648 6:-1 7:-1 8:0.0839695 9:1 10:-0.612903 12:-1 13:1 14:1 
0.11862199745116955 y:-1 1:-0.375 2:1 3:0.333333 4:-0.509434 5:-0.543379 6:-1 7:-1 8:0.496183 9:-1 10:-1 11:-1 12:-1 13:-1 14:1 
0.062634844308329038 y:-1 1:0.291667 2:-1 3:-1 4:0.0566038 5:-0.479452 6:-1 7:-1 8:0.526718 9:-1 10:-0.709677 11:-1 12:-1 13:-1 14:1 
0.39875119567539657 y:-1 1:0.416667 2:1 3:-1 4:-0.0377358 5:-0.511416 6:1 7:1 8:0.206107 9:-1 10:-0.258065 11:1 12:-1 13:0.5 14:1 
0.1059131863703162 y:1 1:0.166667 2:1 3:1 4:0.0566038 5:-0.315068 6:-1 7:1 8:-0.374046 9:1 10:-0.806452 12:-0.333333 13:0.5 14:1 
0.40596261332433647 y:-1 1:-0.0833333 2:1 3:1 4:-0.132075 5:-0.383562 6:-1 7:1 8:0.755725 9:1 10:-1 11:-1 12:-1 13:-1 14:1 
0.7572474990227982 y:1 1:0.208333 2:-1 3:-0.333333 4:-0.207547 5:-0.118721 6:1 7:1 8:0.236641 9:-1 10:-1 11:-1 12:0.333333 13:-1 14:1 
0.13001404476502432 y:-1 1:-0.375 2:-1 3:0.333333 4:-0.54717 5:-0.47032 6:-1 7:-1 8:0.19084 9:-1 10:-0.903226 12:-0.333333 13:-1 14:1 
0.8700254747475078 y:1 1:-0.25 2:1 3:0.333333 4:-0.735849 5:-0.465753 6:-1 7:-1 8:0.236641 9:-1 10:-1 11:-1 12:-1 13:-1 14:1 
0.12559601921404112 y:1 1:0.333333 2:1 3:1 4:-0.509434 5:-0.388128 6:-1 7:-1 8:0.0534351 9:1 10:0.16129 12:-0.333333 13:1 14:1 
0.24960348173047928 y:-1 1:0.166667 2:-1 3:1 4:-0.509434 5:0.0410959 6:-1 7:-1 8:0.40458 9:1 10:-0.806452 11:-1 12:-1 13:-1 14:1 
0.2220603103933777 y:-1 1:0.708333 2:1 3:-0.333333 4:0.169811 5:-0.456621 6:-1 7:1 8:0.0992366 9:-1 10:-1 11:-1 12:-1 13:-1 14:1 
0.1667953733004689 y:-1 1:0.958333 2:-1 3:0.333333 4:-0.132075 5:-0.675799 6:-1 8:-0.312977 9:-1 10:-0.645161 12:-1 13:-1 14:1 
0.23298377576354343 y:-1 1:0.583333 2:-1 3:1 4:-0.773585 5:-0.557078 6:-1 7:-1 8:0.0839695 9:-1 10:-0.903226 11:-1 12:0.333333 13:-1 14:1 
0.065775780890633545 y:1 1:-0.333333 2:1 3:1 4:-0.0943396 5:-0.164384 6:-1 7:1 8:0.160305 9:1 10:-1 12:1 13:1 14:1 
0.57328412747013546 y:-1 1:-0.333333 2:1 3:1 4:-0.811321 5:-0.625571 6:-1 7:1 8:0.175573 9:1 10:-0.0322581 12:-1 13:-1 14:1 
0.058417367147680616 y:-1 1:-0.583333 2:-1 3:0.333333 4:-1 5:-0.666667 6:-1 7:-1 8:0.648855 9:-1 10:-1 11:-1 12:-1 13:-1 14:1 
0.078636622936289396 y:-1 1:-0.458333 2:-1 3:0.333333 4:-0.509434 5:-0.621005 6:-1 7:-1 8:0.557252 9:-1 10:-1 12:-1 13:-1 14:1 
0.10535396296604531 y:-1 1:0.125 2:1 3:-0.333333 4:-0.509434 5:-0.497717 6:-1 7:-1 8:0.633588 9:-1 10:-0.741935 11:-1 12:-1 13:-1 14:1 
0.23093945838014854 y:1 1:0.208333 2:1 3:1 4:-0.0188679 5:-0.579909 6:-1 7:-1 8:-0.480916 9:-1 10:-0.354839 12:-0.333333 13:1 14:1 
0.2430587765379939 y:1 1:-0.75 2:1 3:1 4:-0.509434 5:-0.671233 6:-1 7:-1 8:-0.0992366 9:1 10:-0.483871 12:-1 13:1 14:1 
0.19352916301972084 y:1 1:0.208333 2:1 3:1 4:0.0566038 5:-0.342466 6:-1 7:1 8:-0.389313 9:1 10:-0.741935 11:-1 12:-1 13:1 14:1 
0.26487931575255447 y:-1 1:-0.5 2:1 3:0.333333 4:-0.320755 5:-0.598174 6:-1 7:1 8:0.480916 9:-1 10:-0.354839 12:-1 13:-1 14:1 
0.71976309863238497 y:-1 1:0.166667 2:1 3:1 4:-0.698113 5:-0.657534 6:-1 7:-1 8:-0.160305 9:1 10:-0.516129 12:-1 13:0.5 14:1 
0.30047285338033258 y:-1 1:-0.458333 2:1 3:-1 4:0.0188679 5:-0.461187 6:-1 7:1 8:0.633588 9:-1 10:-0.741935 11:-1 12:0.333333 13:-1 14:1 
0.17485801061491213 y:-1 1:0.375 2:1 3:-0.333333 4:-0.358491 5:-0.625571 6:1 7:1 8:0.0534351 9:-1 10:-1 11:-1 12:-1 13:-1 14:1 
0.57706119297418945 y:-1 1:0.25 2:1 3:-1 4:0.584906 5:-0.342466 6:-1 7:1 8:0.129771 9:-1 10:0.354839 11:1 12:-1 13:1 14:1 
0.053401044293583382 y:-1 1:-0.5 2:-1 3:-0.333333 4:-0.396226 5:-0.178082 6:-1 7:-1 8:0.40458 9:-1 10:-1 11:-1 12:-1 13:-1 14:1 
0.22908444268861852 y:1 1:-0.125 2:1 3:1 4:0.0566038 5:-0.465753 6:-1 7:1 8:-0.129771 9:-1 10:-0.16129 12:-1 13:1 14:1 
0.20536973170078276 y:-1 1:0.25 2:1 3:-0.333333 4:-0.132075 5:-0.56621 6:-1 7:-1 8:0.419847 9:1 10:-1 11:-1 12:-1 13:-1 14:1 
0.8468261127121528 y:1 1:0.333333 2:-1 3:1 4:-0.320755 5:-0.0684932 6:-1 7:1 8:0.496183 9:-1 10:-1 11:-1 12:-1 13:-1 14:1 
0.079130503106668526 y:1 1:0.0416667 2:1 3:1 4:-0.433962 5:-0.360731 6:-1 7:1 8:-0.419847 9:1 10:-0.290323 12:-0.333333 13:1 14:1 
0.30521150730994151 y:1 1:0.0416667 2:1 3:1 4:-0.698113 5:-0.634703 6:-1 7:1 8:-0.435115 9:1 10:-1 12:-0.333333 13:-1 14:1 
0.33175623726951115 y:1 1:-0.0416667 2:1 3:1 4:-0.415094 5:-0.607306 6:-1 7:-1 8:0.480916 9:-1 10:-0.677419 11:-1 12:0.333333 13:1 14:1 
0.29112874438733527 y:1 1:-0.25 2:1 3:1 4:-0.698113 5:-0.319635 6:-1 7:1 8:-0.282443 9:1 10:-0.677419 12:-0.333333 13:-1 14:1 
0.38879309615654462 y:-1 1:0.541667 2:1 3:1 4:-0.509434 5:-0.196347 6:-1 7:1 8:0.221374 9:-1 10:-0.870968 12:-1 13:-1 14:1 
0.45746044902032096 y:1 1:0.208333 2:1 3:1 4:-0.886792 5:-0.506849 6:-1 7:-1 8:0.29771 9:-1 10:-0.967742 11:-1 12:-0.333333 13:1 14:1 
0.27339004389138993 y:-1 1:0.458333 2:-1 3:0.333333 4:-0.132075 5:-0.146119 6:-1 7:-1 8:-0.0534351 9:-1 10:-0.935484 11:-1 12:-1 13:1 14:1 
0.054733651753073417 y:-1 1:-0.125 2:-1 3:-0.333333 4:-0.509434 5:-0.461187 6:-1 7:-1 8:0.389313 9:-1 10:-0.645161 11:-1 12:-1 13:-1 14:1 
0.079869249819587346 y:-1 1:-0.375 2:-1 3:0.333333 4:-0.735849 5:-0.931507 6:-1 7:-1 8:0.587786 9:-1 10:-0.806452 12:-1 13:-1 14:1 
0.57502867109006472 y:1 1:0.583333 2:1 3:1 4:-0.509434 5:-0.493151 6:-1 7:-1 8:-1 9:-1 10:-0.677419 12:-1 13:-1 14:1 
0.092527158891082595 y:-1 1:-0.166667 2:-1 3:1 4:-0.320755 5:-0.347032 6:-1 7:-1 8:0.40458 9:-1 10:-1 11:-1 12:-1 13:-1 14:1 
0.15069380064632584 y:1 1:0.166667 2:1 3:1 4:0.339623 5:-0.255708 6:1 7:1 8:-0.19084 9:-1 10:-0.677419 12:1 13:1 14:1 
0.16960671788708429 y:1 1:0.416667 2:1 3:1 4:-0.320755 5:-0.415525 6:-1 7:1 8:0.160305 9:-1 10:-0.548387 12:-0.333333 13:1 14:1 
0.32785474078052979 y:1 1:-0.208333 2:1 3:1 4:-0.433962 5:-0.324201 6:-1 7:1 8:0.450382 9:-1 10:-0.83871 12:-1 13:1 14:1 
0.36221115818180483 y:-1 1:-0.0833333 2:1 3:0.333333 4:-0.886792 5:-0.561644 6:-1 7:-1 8:0.0992366 9:1 10:-0.612903 12:-1 13:-1 14:1 
0.21355722478444528 y:1 1:0.291667 2:-1 3:1 4:0.0566038 5:-0.39726 6:-1 7:1 8:0.312977 9:-1 10:-0.16129 12:0.333333 13:1 14:1 
0.28302548130825639 y:1 1:0.25 2:1 3:1 4:-0.132075 5:-0.767123 6:-1 7:-1 8:0.389313 9:1 10:-1 11:-1 12:-0.333333 13:1 14:1 
0.073108823308650317 y:-1 1:-0.333333 2:-1 3:-0.333333 4:-0.660377 5:-0.844749 6:-1 7:-1 8:0.0229008 9:-1 10:-1 12:-1 13:-1 14:1 
0.45791704879808148 y:1 1:0.0833333 2:-1 3:1 4:0.622642 5:-0.0821918 6:-1 8:-0.29771 9:1 10:0.0967742 12:-1 13:-1 14:1 
0.10240441628337292 y:-1 1:-0.5 2:1 3:-0.333333 4:-0.698113 5:-0.502283 6:-1 7:-1 8:0.251908 9:-1 10:-1 11:-1 12:-1 13:-1 14:1 
0.82746349784597539 y:1 1:0.291667 2:-1 3:1 4:0.207547 5:-0.182648 6:-1 7:1 8:0.374046 9:-1 10:-1 11:-1 12:-1 13:-1 14:1 
0.089575301440982968 y:-1 1:0.0416667 2:-1 3:0.333333 4:-0.226415 5:-0.187215 6:1 7:-1 8:0.51145 9:-1 10:-1 11:-1 12:-1 13:-1 14:1 
0.10275903440447978 y:-1 1:-0.458333 2:1 3:-0.333333 4:-0.509434 5:-0.228311 6:-1 7:-1 8:0.389313 9:-1 10:-1 11:-1 12:-1 13:-1 14:1 
0.071448451658649811 y:-1 1:-0.166667 2:-1 3:-0.333333 4:-0.245283 5:-0.3379 6:-1 7:-1 8:0.389313 9:-1 10:-1 12:-1 13:-1 14:1 
0.36668123116963897 y:1 1:-0.291667 2:1 3:1 4:-0.509434 5:-0.438356 6:-1 7:1 8:0.114504 9:-1 10:-0.741935 11:-1 12:-1 13:1 14:1 
0.13514067447700559 y:1 1:0.125 2:-1 3:1 4:1 5:-0.260274 6:1 7:1 8:-0.0534351 9:1 10:0.290323 11:1 12:0.333333 13:1 14:1 
0.19741585749758817 y:-1 1:0.541667 2:-1 3:-1 4:0.0566038 5:-0.543379 6:-1 7:-1 8:-0.343511 9:-1 10:-0.16129 11:1 12:-1 13:-1 14:1 
0.16352035948449078 y:1 1:0.125 2:1 3:1 4:-0.320755 5:-0.283105 6:1 7:1 8:-0.51145 9:1 10:-0.483871 11:1 12:-1 13:1 14:1 
0.21320487328350538 y:1 1:-0.166667 2:1 3:0.333333 4:-0.509434 5:-0.716895 6:-1 7:-1 8:0.0381679 9:-1 10:-0.354839 12:1 13:1 14:1 
0.15215840666750996 y:1 1:0.0416667 2:1 3:1 4:-0.471698 5:-0.269406 6:-1 7:1 8:-0.312977 9:1 10:0.0322581 12:0.333333 13:-1 14:1 
0.12491114083552601 y:1 1:0.166667 2:1 3:1 4:0.0943396 5:-0.324201 6:-1 7:-1 8:-0.740458 9:1 10:-0.612903 12:-0.333333 13:1 14:1 
0.15075763335425887 y:-1 1:0.5 2:-1 3:0.333333 4:0.245283 5:0.0684932 6:-1 7:1 8:0.221374 9:-1 10:-0.741935 11:-1 12:-1 13:-1 14:1 
0.46953717769590542 y:-1 1:0.0416667 2:1 3:0.333333 4:-0.415094 5:-0.328767 6:-1 7:1 8:0.236641 9:-1 10:-0.83871 11:1 12:-0.333333 13:-1 14:1 
0.10742981953676088 y:-1 1:0.0416667 2:-1 3:0.333333 4:0.245283 5:-0.657534 6:-1 7:-1 8:0.40458 9:-1 10:-1 11:-1 12:-0.333333 13:-1 14:1 
0.097677457535403286 y:1 1:0.375 2:1 3:1 4:-0.509434 5:-0.356164 6:-1 7:-1 8:-0.572519 9:1 10:-0.419355 12:0.333333 13:1 14:1 
0.11780687696396504 y:-1 1:-0.0416667 2:-1 3:0.333333 4:-0.207547 5:-0.680365 6:-1 7:1 8:0.496183 9:-1 10:-0.967742 12:-1 13:-1 14:1 
0.16694134335263175 y:-1 1:-0.0416667 2:1 3:-0.333333 4:-0.245283 5:-0.657534 6:-1 7:-1 8:0.328244 9:-1 10:-0.741935 11:-1 12:-0.333333 13:-1 14:1 
0.25613048812524442 y:1 1:0.291667 2:1 3:1 4:-0.566038 5:-0.525114 6:1 7:-1 8:0.358779 9:1 10:-0.548387 11:-1 12:0.333333 13:1 14:1 
0.45487372922301 y:1 1:0.416667 2:-1 3:1 4:-0.735849 5:-0.347032 6:-1 7:-1 8:0.496183 9:1 10:-0.419355 12:0.333333 13:-1 14:1 
0.38306800326478291 y:1 1:0.541667 2:1 3:1 4:-0.660377 5:-0.607306 6:-1 7:1 8:-0.0687023 9:1 10:-0.967742 11:-1 12:-0.333333 13:-1 14:1 
0.16611533925457483 y:-1 1:-0.458333 2:1 3:1 4:-0.132075 5:-0.543379 6:-1 7:-1 8:0.633588 9:-1 10:-1 11:-1 12:-1 13:-1 14:1 
0.1958663594315489 y:1 1:0.458333 2:1 3:1 4:-0.509434 5:-0.452055 6:-1 7:1 8:-0.618321 9:1 10:-0.290323 11:1 12:-0.333333 13:-1 14:1 
0.55839629452292761 y:-1 1:0.0416667 2:1 3:0.333333 4:0.0566038 5:-0.515982 6:-1 7:1 8:0.435115 9:-1 10:-0.483871 11:-1 12:-1 13:1 14:1 
0.35595671785136213 y:-1 1:-0.291667 2:-1 3:0.333333 4:-0.0943396 5:-0.767123 6:-1 7:1 8:0.358779 9:1 10:-0.548387 11:1 12:-1 13:-1 14:1 
0.11631329110418802 y:-1 1:0.583333 2:-1 3:0.333333 4:0.0943396 5:-0.310502 6:-1 7:-1 8:0.541985 9:-1 10:-1 11:-1 12:-0.333333 13:-1 14:1 
0.34405035947482815 y:1 1:0.125 2:1 3:1 4:-0.415094 5:-0.438356 6:1 7:1 8:0.114504 9:1 10:-0.612903 12:-0.333333 13:-1 14:1 
0.051063059778671184 y:-1 1:-0.791667 2:-1 3:-0.333333 4:-0.54717 5:-0.616438 6:-1 7:-1 8:0.847328 9:-1 10:-0.774194 11:-1 12:-1 13:-1 14:1 
0.60709462286898119 y:-1 1:0.166667 2:1 3:1 4:-0.283019 5:-0.630137 6:-1 7:-1 8:0.480916 9:1 10:-1 11:-1 12:-1 13:1 14:1 
0.11955861520910409 y:1 1:0.458333 2:1 3:1 4:-0.0377358 5:-0.607306 6:-1 7:1 8:-0.0687023 9:-1 10:-0.354839 12:0.333333 13:0.5 14:1 
0.27499747636320887 y:-1 1:0.25 2:1 3:1 4:-0.169811 5:-0.3379 6:-1 7:1 8:0.694656 9:-1 10:-1 11:-1 12:-1 13:-1 14:1 
0.41623618667259416 y:1 1:-0.125 2:1 3:0.333333 4:-0.132075 5:-0.511416 6:-1 7:-1 8:0.40458 9:-1 10:-0.806452 12:-0.333333 13:1 14:1 
0.35762682830911546 y:-1 1:-0.0833333 2:1 3:-1 4:-0.415094 5:-0.60274 6:-1 7:1 8:-0.175573 9:1 10:-0.548387 11:-1 12:-0.333333 13:-1 14:1 
0.44854695803895445 y:1 1:0.0416667 2:1 3:-0.333333 4:0.849057 5:-0.283105 6:-1 7:1 8:0.89313 9:-1 10:-1 11:-1 12:-0.333333 13:1 14:1 
0.094679799925643723 y:1 2:1 3:1 4:-0.45283 5:-0.287671 6:-1 7:-1 8:-0.633588 9:1 10:-0.354839 12:0.333333 13:1 14:1 
0.74490024529692977 y:1 1:-0.0416667 2:1 3:1 4:-0.660377 5:-0.525114 6:-1 7:-1 8:0.358779 9:-1 10:-1 11:-1 12:-0.333333 13:-1 14:1 
0.16397635445267547 y:1 1:-0.541667 2:1 3:1 4:-0.698113 5:-0.812785 6:-1 7:1 8:-0.343511 9:1 10:-0.354839 12:-1 13:1 14:1 
0.20780751841682005 y:1 1:0.208333 2:1 3:0.333333 4:-0.283019 5:-0.552511 6:-1 7:1 8:0.557252 9:-1 10:0.0322581 11:-1 12:0.333333 13:1 14:1 
0.17776711326143263 y:-1 1:-0.5 2:-1 3:0.333333 4:-0.660377 5:-0.351598 6:-1 7:1 8:0.541985 9:1 10:-1 11:-1 12:-1 13:-1 14:1 
0.11387411655862996 y:-1 1:-0.5 2:1 3:0.333333 4:-0.660377 5:-0.43379 6:-1 7:-1 8:0.648855 9:-1 10:-1 11:-1 12:-1 13:-1 14:1 
0.098598898715431094 y:-1 1:-0.125 2:-1 3:0.333333 4:-0.509434 5:-0.575342 6:-1 7:-1 8:0.328244 9:-1 10:-0.483871 12:-1 13:-1 14:1 
0.093725958262802708 y:-1 1:0.0416667 2:-1 3:0.333333 4:-0.735849 5:-0.356164 6:-1 7:1 8:0.465649 9:-1 10:-1 11:-1 12:-1 13:-1 14:1 
0.38613476290858345 y:-1 1:0.458333 2:-1 3:1 4:-0.320755 5:-0.191781 6:-1 7:-1 8:-0.221374 9:-1 10:-0.354839 12:0.333333 13:-1 14:1 
0.10593915006612413 y:-1 1:-0.0833333 2:-1 3:0.333333 4:-0.320755 5:-0.406393 6:-1 7:1 8:0.19084 9:-1 10:-0.83871 11:-1 12:-1 13:-1 14:1 
0.047641970371850903 y:-1 1:-0.291667 2:-1 3:-0.333333 4:-0.792453 5:-0.643836 6:-1 7:-1 8:0.541985 9:-1 10:-1 11:-1 12:-1 13:-1 14:1 
0.13474964810508286 y:1 1:0.0833333 2:1 3:1 4:-0.132075 5:-0.584475 6:-1 7:-1 8:-0.389313 9:1 10:0.806452 11:1 12:-1 13:1 14:1 
0.1532750841376968 y:-1 1:-0.333333 2:1 3:-0.333333 4:-0.358491 5:-0.16895 6:-1 7:1 8:0.51145 9:-1 10:-1 11:-1 12:-1 13:-1 14:1 
0.4201424735431139 y:-1 1:0.125 2:1 3:-1 4:-0.509434 5:-0.694064 6:-1 7:1 8:0.389313 9:-1 10:-0.387097 12:-1 13:1 14:1 
0.22713807062921099 y:1 1:0.541667 2:-1 3:1 4:0.584906 5:-0.534247 6:1 7:-1 8:0.435115 9:1 10:-0.677419 12:0.333333 13:1 14:1 
0.47400959076703297 y:1 1:-0.625 2:1 3:-1 4:-0.509434 5:-0.520548 6:-1 7:-1 8:0.694656 9:1 10:0.225806 12:-1 13:1 14:1 
0.61467536277762158 y:1 1:0.375 2:-1 3:1 4:0.0566038 5:-0.461187 6:-1 7:-1 8:0.267176 9:1 10:-0.548387 12:-1 13:-1 14:1 
0.11253473651825961 y:-1 1:0.0833333 2:1 3:-0.333333 4:-0.320755 5:-0.378995 6:-1 7:-1 8:0.282443 9:-1 10:-1 11:-1 12:-1 13:-1 14:1 
0.053674594258797989 y:1 1:0.208333 2:1 3:1 4:-0.358491 5:-0.392694 6:-1 7:1 8:-0.0992366 9:1 10:-0.0322581 12:0.333333 13:1 14:1 
0.41282156314177854 y:-1 1:-0.416667 2:1 3:1 4:-0.698113 5:-0.611872 6:-1 7:-1 8:0.374046 9:-1 10:-1 11:-1 12:-1 13:1 14:1 
0.31490360375335591 y:-1 1:0.458333 2:-1 3:1 4:0.622642 5:-0.0913242 6:-1 7:-1 8:0.267176 9:1 10:-1 11:-1 12:-1 13:-1 14:1 
0.13496875954818813 y:-1 1:-0.125 2:-1 3:1 4:-0.698113 5:-0.415525 6:-1 7:1 8:0.343511 9:-1 10:-1 11:-1 12:-1 13:-1 14:1 
0.3122017736274037 y:-1 2:1 3:0.333333 4:-0.320755 5:-0.675799 6:1 7:1 8:0.236641 9:-1 10:-0.612903 11:1 12:-1 13:-1 14:1 
0.34159611791763711 y:-1 1:-0.333333 2:-1 3:1 4:-0.169811 5:-0.497717 6:-1 7:1 8:0.236641 9:1 10:-0.935484 12:-1 13:-1 14:1 
0.73277102817431095 y:1 1:0.5 2:1 3:-1 4:-0.169811 5:-0.287671 6:1 7:1 8:0.572519 9:-1 10:-0.548387 12:-0.333333 13:-1 14:1 
0.29824196938651687 y:-1 1:0.666667 2:1 3:-1 4:0.245283 5:-0.506849 6:1 7:1 8:-0.0839695 9:-1 10:-0.967742 12:-0.333333 13:-1 14:1 
0.10990820517986835 y:1 1:0.666667 2:1 3:0.333333 4:-0.132075 5:-0.415525 6:-1 7:1 8:0.145038 9:-1 10:-0.354839 12:1 13:1 14:1 
0.19016242979139616 y:1 1:0.583333 2:1 3:1 4:-0.886792 5:-0.210046 6:-1 7:1 8:-0.175573 9:1 10:-0.709677 12:0.333333 13:-1 14:1 
0.1843672362949926 y:-1 1:0.625 2:-1 3:0.333333 4:-0.509434 5:-0.611872 6:-1 7:1 8:-0.328244 9:-1 10:-0.516129 12:-1 13:-1 14:1 
0.12223389370095614 y:-1 1:-0.791667 2:1 3:-1 4:-0.54717 5:-0.744292 6:-1 7:1 8:0.572519 9:-1 10:-1 11:-1 12:-1 13:-1 14:1 
0.49047151239195008 y:1 1:0.375 2:-1 3:1 4:-0.169811 5:-0.232877 6:1 7:-1 8:-0.465649 9:-1 10:-0.387097 12:1 13:-1 14:1 
0.074279938331956522 y:1 1:-0.0833333 2:1 3:1 4:-0.132075 5:-0.214612 6:-1 7:-1 8:-0.221374 9:1 10:0.354839 12:1 13:1 14:1 
0.71277344500033202 y:1 1:-0.291667 2:1 3:0.333333 4:0.0566038 5:-0.520548 6:-1 7:-1 8:0.160305 9:-1 10:0.16129 12:-1 13:-1 14:1 
0.36886553409156964 y:1 1:0.583333 2:1 3:1 4:-0.415094 5:-0.415525 6:1 7:-1 8:0.40458 9:-1 10:-0.935484 12:0.333333 13:1 14:1 
0.12543993249535426 y:-1 1:-0.125 2:1 3:0.333333 4:-0.339623 5:-0.680365 6:-1 7:-1 8:0.40458 9:-1 10:-1 11:-1 12:-1 13:-1 14:1 
0.39826270858201451 y:-1 1:-0.458333 2:1 3:0.333333 4:-0.509434 5:-0.479452 6:1 7:-1 8:0.877863 9:-1 10:-0.741935 11:1 12:-1 13:1 14:1 
0.12890885617596604 y:1 1:0.125 2:-1 3:1 4:-0.245283 5:0.292237 6:-1 7:1 8:0.206107 9:1 10:-0.387097 12:0.333333 13:1 14:1 
0.42753932827554286 y:1 1:-0.5 2:1 3:1 4:-0.698113 5:-0.789954 6:-1 7:1 8:0.328244 9:-1 10:-1 11:-1 12:-1 13:1 14:1 
0.19066323421523598 y:-1 1:-0.458333 2:-1 3:1 4:-0.849057 5:-0.365297 6:-1 7:1 8:-0.221374 9:-1 10:-0.806452 12:-1 13:-1 14:1 
0.4788857776039781 y:-1 2:1 3:0.333333 4:-0.320755 5:-0.452055 6:1 7:1 8:0.557252 9:-1 10:-1 11:-1 12:1 13:-1 14:1 
0.23390150653852607 y:-1 1:-0.416667 2:1 3:0.333333 4:-0.320755 5:-0.136986 6:-1 7:-1 8:0.389313 9:-1 10:-0.387097 11:-1 12:-0.333333 13:-1 14:1 
0.097926185650377418 y:1 1:0.125 2:1 3:1 4:-0.283019 5:-0.73516 6:-1 7:1 8:-0.480916 9:1 10:-0.322581 12:-0.333333 13:0.5 14:1 
0.60736602725262179 y:-1 1:-0.0416667 2:1 3:1 4:-0.735849 5:-0.511416 6:1 7:-1 8:0.160305 9:-1 10:-0.967742 11:-1 12:1 13:1 14:1 
0.22886964791885261 y:-1 1:0.375 2:-1 3:1 4:-0.132075 5:0.223744 6:-1 7:1 8:0.312977 9:-1 10:-0.612903 12:-1 13:-1 14:1 
0.14588123294758892 y:1 1:0.708333 2:1 3:0.333333 4:0.245283 5:-0.347032 6:-1 7:-1 8:-0.374046 9:1 10:-0.0645161 12:-0.333333 13:1 14:1 
0.20973535172490868 y:-1 1:0.0416667 2:1 3:1 4:-0.132075 5:-0.484018 6:-1 7:-1 8:0.358779 9:-1 10:-0.612903 11:-1 12:-1 13:-1 14:1 
0.16097941885686495 y:1 1:0.708333 2:1 3:1 4:-0.0377358 5:-0.780822 6:-1 7:-1 8:-0.175573 9:1 10:-0.16129 11:1 12:-1 13:1 14:1 
0.28627109557943714 y:-1 1:0.0416667 2:1 3:-0.333333 4:-0.735849 5:-0.164384 6:-1 7:-1 8:0.29771 9:-1 10:-1 11:-1 12:-1 13:1 14:1 
0.27905087497711445 y:1 1:-0.75 2:1 3:1 4:-0.396226 5:-0.287671 6:-1 7:1 8:0.29771 9:1 10:-1 11:-1 12:-1 13:1 14:1 
0.23112788490309924 y:-1 1:-0.208333 2:1 3:0.333333 4:-0.433962 5:-0.410959 6:1 7:-1 8:0.587786 9:-1 10:-1 11:-1 12:0.333333 13:-1 14:1 
0.10919015736994582 y:-1 1:0.0833333 2:-1 3:-0.333333 4:-0.226415 5:-0.43379 6:-1 7:1 8:0.374046 9:-1 10:-0.548387 12:-1 13:-1 14:1 
0.2092592695138924 y:-1 1:0.208333 2:-1 3:1 4:-0.886792 5:-0.442922 6:-1 7:1 8:-0.221374 9:-1 10:-0.677419 12:-1 13:-1 14:1 
0.098737029362772358 y:-1 1:0.0416667 2:-1 3:0.333333 4:-0.698113 5:-0.598174 6:-1 7:-1 8:0.328244 9:-1 10:-0.483871 12:-1 13:-1 14:1 
0.1568357875319539 y:-1 1:0.666667 2:-1 3:-1 4:-0.132075 5:-0.484018 6:-1 7:-1 8:0.221374 9:-1 10:-0.419355 11:-1 12:0.333333 13:-1 14:1 
0.21254147894768471 y:1 1:1 2:1 3:1 4:-0.415094 5:-0.187215 6:-1 7:1 8:0.389313 9:1 10:-1 11:-1 12:1 13:-1 14:1 
0.51339487058713829 y:-1 1:0.625 2:1 3:0.333333 4:-0.54717 5:-0.310502 6:-1 7:-1 8:0.221374 9:-1 10:-0.677419 11:-1 12:-0.333333 13:1 14:1 
0.19066216620123239 y:1 1:0.208333 2:1 3:1 4:-0.415094 5:-0.205479 6:-1 7:1 8:0.526718 9:-1 10:-1 11:-1 12:0.333333 13:1 14:1 
0.081884219298276384 y:1 1:0.291667 2:1 3:1 4:-0.415094 5:-0.39726 6:-1 7:1 8:0.0687023 9:1 10:-0.0967742 12:-0.333333 13:1 14:1 
0.3302879601720316 y:1 1:-0.0833333 2:1 3:1 4:-0.132075 5:-0.210046 6:-1 7:-1 8:0.557252 9:1 10:-0.483871 11:-1 12:-1 13:1 14:1 
0.093150555502739887 y:1 1:0.0833333 2:1 3:1 4:0.245283 5:-0.255708 6:-1 7:1 8:0.129771 9:1 10:-0.741935 12:-0.333333 13:1 14:1 
0.27366226146357081 y:-1 1:-0.0416667 2:1 3:-1 4:0.0943396 5:-0.214612 6:1 7:-1 8:0.633588 9:-1 10:-0.612903 12:-1 13:1 14:1 
0.10032775641072746 y:-1 1:0.291667 2:-1 3:0.333333 4:-0.849057 5:-0.123288 6:-1 7:-1 8:0.358779 9:-1 10:-1 11:-1 12:-0.333333 13:-1 14:1 
0.73373271359546921 y:-1 1:0.208333 2:1 3:0.333333 4:-0.792453 5:-0.479452 6:-1 7:1 8:0.267176 9:1 10:-0.806452 12:-1 13:1 14:1 
0.26637956872719187 y:1 1:0.458333 2:1 3:0.333333 4:-0.415094 5:-0.164384 6:-1 7:-1 8:-0.0839695 9:1 10:-0.419355 12:-1 13:1 14:1 
0.30432978848931014 y:-1 1:-0.666667 2:1 3:0.333333 4:-0.320755 5:-0.43379 6:-1 7:-1 8:0.770992 9:-1 10:0.129032 11:1 12:-1 13:-1 14:1 
0.55335688286180584 y:1 1:0.25 2:1 3:-1 4:0.433962 5:-0.260274 6:-1 7:1 8:0.343511 9:-1 10:-0.935484 12:-1 13:1 14:1 
0.25880763673968765 y:-1 1:-0.0833333 2:1 3:0.333333 4:-0.415094 5:-0.456621 6:1 7:1 8:0.450382 9:-1 10:-0.225806 12:-1 13:-1 14:1 
0.081927573481038796 y:-1 1:-0.416667 2:-1 3:0.333333 4:-0.471698 5:-0.60274 6:-1 7:-1 8:0.435115 9:-1 10:-0.935484 12:-1 13:-1 14:1 
0.048878525730324765 y:1 1:0.208333 2:1 3:1 4:-0.358491 5:-0.589041 6:-1 7:1 8:-0.0839695 9:1 10:-0.290323 12:1 13:1 14:1 
0.13070657471332997 y:-1 1:-1 2:1 3:-0.333333 4:-0.320755 5:-0.643836 6:-1 7:1 8:1 9:-1 10:-1 11:-1 12:-1 13:-1 14:1 
0.079860611556447525 y:-1 1:-0.5 2:-1 3:-0.333333 4:-0.320755 5:-0.643836 6:-1 7:1 8:0.541985 9:-1 10:-0.548387 11:-1 12:-1 13:-1 14:1 
0.10588789110343072 y:-1 1:0.416667 2:-1 3:0.333333 4:-0.226415 5:-0.424658 6:-1 7:1 8:0.541985 9:-1 10:-1 11:-1 12:-1 13:-1 14:1 
0.60505373005995178 y:-1 1:-0.0833333 2:1 3:0.333333 4:-1 5:-0.538813 6:-1 7:-1 8:0.267176 9:1 10:-1 11:-1 12:-0.333333 13:1 14:1 
0.60468652789089306 y:-1 1:0.0416667 2:1 3:0.333333 4:-0.509434 5:-0.39726 6:-1 7:1 8:0.160305 9:-1 10:-0.870968 12:-1 13:1 14:1 
0.095079692006246844 y:-1 1:-0.375 2:1 3:-0.333333 4:-0.509434 5:-0.570776 6:-1 7:-1 8:0.51145 9:-1 10:-1 11:-1 12:-1 13:-1 14:1 
0.1360642354385804 y:1 1:0.0416667 2:1 3:1 4:-0.698113 5:-0.484018 6:-1 7:-1 8:-0.160305 9:1 10:-0.0967742 12:-0.333333 13:1 14:1 
0.13983554008727636 y:1 1:0.5 2:1 3:1 4:-0.226415 5:-0.415525 6:-1 7:1 8:-0.145038 9:-1 10:-0.0967742 12:-0.333333 13:1 14:1 
0.15560427783151581 y:-1 1:0.166667 2:1 3:0.333333 4:0.0566038 5:-0.808219 6:-1 7:-1 8:0.572519 9:-1 10:-0.483871 11:-1 12:-1 13:-1 14:1 
0.11073979342890797 y:1 1:0.416667 2:1 3:1 4:-0.320755 5:-0.0684932 6:1 7:1 8:-0.0687023 9:1 10:-0.419355 11:-1 12:1 13:1 14:1 
0.098859010314310727 y:-1 1:-0.75 2:-1 3:1 4:-0.169811 5:-0.739726 6:-1 7:-1 8:0.694656 9:-1 10:-0.548387 11:-1 12:-1 13:-1 14:1 
0.31134607698288025 y:-1 1:-0.5 2:1 3:-0.333333 4:-0.226415 5:-0.648402 6:-1 7:-1 8:-0.0687023 9:-1 10:-1 12:-1 13:0.5 14:1 
0.49026734770518876 y:1 1:0.375 2:-1 3:0.333333 4:-0.320755 5:-0.374429 6:-1 7:-1 8:-0.603053 9:-1 10:-0.612903 12:-0.333333 13:1 14:1 
0.25940424071545076 y:1 1:-0.416667 2:-1 3:1 4:-0.283019 5:-0.0182648 6:1 7:1 8:-0.00763359 9:1 10:-0.0322581 12:-1 13:1 14:1 
0.11957383267825759 y:-1 1:0.208333 2:-1 3:-1 4:0.0566038 5:-0.283105 6:1 7:1 8:0.389313 9:-1 10:-0.677419 11:-1 12:-1 13:-1 14:1 
0.277051184458462 y:-1 1:-0.0416667 2:1 3:-1 4:-0.54717 5:-0.726027 6:-1 7:1 8:0.816794 9:-1 10:-1 12:-1 13:0.5 14:1 
0.26300069404170667 y:1 1:0.333333 2:-1 3:1 4:-0.0377358 5:-0.173516 6:-1 7:1 8:0.145038 9:1 10:-0.677419 12:-1 13:1 14:1 
0.42359665527320045 y:1 1:-0.583333 2:1 3:1 4:-0.54717 5:-0.575342 6:-1 7:-1 8:0.0534351 9:-1 10:-0.612903 12:-1 13:1 14:1 
0.24149798286365931 y:-1 1:-0.333333 2:1 3:1 4:-0.603774 5:-0.388128 6:-1 7:1 8:0.740458 9:-1 10:-1 11:-1 12:-1 13:-1 14:1 
0.28061724252673392 y:1 1:-0.0416667 2:1 3:1 4:-0.358491 5:-0.410959 6:-1 7:-1 8:0.374046 9:1 10:-1 11:-1 12:-0.333333 13:1 14:1 
0.79402298749932221 y:-1 1:0.375 2:1 3:0.333333 4:-0.320755 5:-0.520548 6:-1 7:-1 8:0.145038 9:-1 10:-0.419355 12:1 13:1 14:1 
0.15460752393653529 y:1 1:0.375 2:-1 3:1 4:0.245283 5:-0.826484 6:-1 7:1 8:0.129771 9:-1 10:1 11:1 12:1 13:1 14:1 
0.14398802390554577 y:-1 2:-1 3:1 4:-0.169811 5:-0.506849 6:-1 7:1 8:0.358779 9:-1 10:-1 11:-1 12:-1 13:-1 14:1 
0.14840127331022998 y:1 1:-0.416667 2:1 3:1 4:-0.509434 5:-0.767123 6:-1 7:1 8:-0.251908 9:1 10:-0.193548 12:-1 13:1 14:1 
0.20951369046538781 y:-1 1:-0.25 2:1 3:0.333333 4:-0.169811 5:-0.401826 6:-1 7:1 8:0.29771 9:-1 10:-1 11:-1 12:-1 13:-1 14:1 
0.10724067298612655 y:-1 1:-0.0416667 2:1 3:-0.333333 4:-0.509434 5:-0.0913242 6:-1 7:-1 8:0.541985 9:-1 10:-0.935484 11:-1 12:-1 13:-1 14:1 
0.23897691309904442 y:1 1:0.625 2:1 3:0.333333 4:0.622642 5:-0.324201 6:1 7:1 8:0.206107 9:1 10:-0.483871 12:-1 13:1 14:1 
0.19035133979594079 y:-1 1:-0.583333 2:1 3:0.333333 4:-0.132075 5:-0.109589 6:-1 7:1 8:0.694656 9:-1 10:-1 11:-1 12:-1 13:-1 14:1 
0.18974697137435551 y:-1 2:-1 3:1 4:-0.320755 5:-0.369863 6:-1 7:1 8:0.0992366 9:-1 10:-0.870968 12:-1 13:-1 14:1 
0.4316008978877065 y:1 1:0.375 2:-1 3:1 4:-0.132075 5:-0.351598 6:-1 7:1 8:0.358779 9:-1 10:0.16129 11:1 12:0.333333 13:-1 14:1 
0.19323879324997165 y:-1 1:-0.0833333 2:-1 3:0.333333 4:-0.132075 5:-0.16895 6:-1 7:1 8:0.0839695 9:-1 10:-0.516129 11:-1 12:-0.333333 13:-1 14:1 
0.22422475933559893 y:1 1:0.291667 2:1 3:1 4:-0.320755 5:-0.420091 6:-1 7:-1 8:0.114504 9:1 10:-0.548387 11:-1 12:-0.333333 13:1 14:1 
0.2180167228124919 y:1 1:0.5 2:1 3:1 4:-0.698113 5:-0.442922 6:-1 7:1 8:0.328244 9:-1 10:-0.806452 11:-1 12:0.333333 13:0.5 14:1 
0.093594255933903345 y:-1 1:0.5 2:-1 3:0.333333 4:0.150943 5:-0.347032 6:-1 7:-1 8:0.175573 9:-1 10:-0.741935 11:-1 12:-1 13:-1 14:1 
0.65099268167972058 y:1 1:0.291667 2:1 3:0.333333 4:-0.132075 5:-0.730594 6:-1 7:1 8:0.282443 9:-1 10:-0.0322581 12:-1 13:-1 14:1 
0.052839765811560059 y:1 1:0.291667 2:1 3:1 4:-0.0377358 5:-0.287671 6:-1 7:1 8:0.0839695 9:1 10:-0.0967742 12:0.333333 13:1 14:1 
0.27140885754001326 y:1 1:0.0416667 2:1 3:1 4:-0.509434 5:-0.716895 6:-1 7:-1 8:-0.358779 9:-1 10:-0.548387 12:-0.333333 13:1 14:1 
0.13596542860444627 y:-1 1:-0.375 2:1 3:-0.333333 4:-0.320755 5:-0.575342 6:-1 7:1 8:0.78626 9:-1 10:-1 11:-1 12:-1 13:-1 14:1 
0.60057318033477891 y:1 1:-0.375 2:1 3:1 4:-0.660377 5:-0.251142 6:-1 7:1 8:0.251908 9:-1 10:-1 11:-1 12:-0.333333 13:-1 14:1 
0.16249134567651161 y:-1 1:-0.0833333 2:1 3:0.333333 4:-0.698113 5:-0.776256 6:-1 7:-1 8:-0.206107 9:-1 10:-0.806452 11:-1 12:-1 13:-1 14:1 
0.15250866747021927 y:-1 1:0.25 2:1 3:0.333333 4:0.0566038 5:-0.607306 6:1 7:-1 8:0.312977 9:-1 10:-0.483871 11:-1 12:-1 13:-1 14:1 
0.16997356353961307 y:-1 1:0.75 2:-1 3:-0.333333 4:0.245283 5:-0.196347 6:-1 7:-1 8:0.389313 9:-1 10:-0.870968 11:-1 12:0.333333 13:-1 14:1 
0.39011970131526441 y:-1 1:0.333333 2:1 3:0.333333 4:0.0566038 5:-0.465753 6:1 7:-1 8:0.00763359 9:1 10:-0.677419 12:-1 13:-1 14:1 
0.14245078591786031 y:1 1:0.0833333 2:1 3:1 4:-0.283019 5:0.0365297 6:-1 7:-1 8:-0.0687023 9:1 10:-0.612903 12:-0.333333 13:1 14:1 
0.83630443891158146 y:1 1:0.458333 2:1 3:0.333333 4:-0.132075 5:-0.0456621 6:-1 7:-1 8:0.328244 9:-1 10:-1 11:-1 12:-1 13:-1 14:1 
0.20294854769371412 y:-1 1:-0.416667 2:1 3:1 4:0.0566038 5:-0.447489 6:-1 7:-1 8:0.526718 9:-1 10:-0.516129 11:-1 12:-1 13:-1 14:1 
0.06874904102245287 y:-1 1:0.208333 2:-1 3:0.333333 4:-0.509434 5:-0.0228311 6:-1 7:-1 8:0.541985 9:-1 10:-1 11:-1 12:-1 13:-1 14:1 
0.056873568256967898 y:1 1:0.291667 2:1 3:1 4:-0.320755 5:-0.634703 6:-1 7:1 8:-0.0687023 9:1 10:-0.225806 12:0.333333 13:1 14:1 
0.76196043998353058 y:1 1:0.208333 2:1 3:-0.333333 4:-0.509434 5:-0.278539 6:-1 7:1 8:0.358779 9:-1 10:-0.419355 12:-1 13:-1 14:1 
0.10459898562290548 y:-1 1:-0.166667 2:1 3:-0.333333 4:-0.320755 5:-0.360731 6:-1 7:-1 8:0.526718 9:-1 10:-0.806452 11:-1 12:-1 13:-1 14:1 
0.55017173583778933 y:1 1:-0.208333 2:1 3:-0.333333 4:-0.698113 5:-0.52968 6:-1 7:-1 8:0.480916 9:-1 10:-0.677419 11:1 12:-1 13:1 14:1 
0.30329653857668537 y:-1 1:-0.0416667 2:1 3:0.333333 4:0.471698 5:-0.666667 6:1 7:-1 8:0.389313 9:-1 10:-0.83871 11:-1 12:-1 13:1 14:1 
0.26532917249446625 y:-1 1:-0.375 2:1 3:-0.333333 4:-0.509434 5:-0.374429 6:-1 7:-1 8:0.557252 9:-1 10:-1 11:-1 12:-1 13:1 14:1 
0.11811603334157464 y:-1 1:0.125 2:-1 3:-0.333333 4:-0.132075 5:-0.232877 6:-1 7:1 8:0.251908 9:-1 10:-0.580645 12:-1 13:-1 14:1 
0.48562715509917115 y:-1 1:0.166667 2:1 3:1 4:-0.132075 5:-0.69863 6:-1 7:-1 8:0.175573 9:-1 10:-0.870968 12:-1 13:0.5 14:1 
0.11528875169798804 y:1 1:0.583333 2:1 3:1 4:0.245283 5:-0.269406 6:-1 7:1 8:-0.435115 9:1 10:-0.516129 12:1 13:-1 14:1 
